-0.5831958505272404 1.7982827797952876 -0.19550117606333425 1.2083801254494748 3.614118981050146 1.4187200267342488 4.944719064145847 0.6044402570713043 1.471797672339079 1.4556653775918709 1.5129677610257932 4.551953189302685 2.3725413242746485 0.6786425635803126 -2.4664544634543253 3.555261877312268 3.7957628883276278 1.2194456794532722 1.6311413977456282 -0.09824756431390286 1.6253114815539231 1.9666428618562848 0.9937066093221862 0.9205304367462438 3.69663812387259 1.2796745187741685 4.898496975478985 0.7998866534510897 1.463234976068054 -0.5339040364676337 1.4013776116015275 -3.2176363908940413 2.076876676240318 0.8870140103249926 4.497138464315069 3.487402990167112 3.6336810154106196 1.4718094515273668 1.9337739101819507 1.3779039404931113 0.7741495711473786 -0.33512839324556143 0.823647749232829 1.8503554488599456 -0.7308558341114334 -1.3840580872631953 -1.5535916399196037 0.33509061977867327 1.829600930968211 0.947852276523948 1.7531824218603387 1.493954843508523 -2.9264968716253024 2.3608678867679878 0.8186902825096932 -0.7244837152908652 -5.4032085358744775 2.044562234997669 -2.347627754876552 0.0457047617968375 
0.08974301415914102 -0.8185682481509211 -0.7179368599797503 0.16504928115617643 1.4729630129003874 0.49049520717395906 -0.48909342839863107 -0.6829329856647149 -0.9541105435603775 -0.9717989343494843 -0.8584206426188014 0.6836868201566443 -0.6892477734090907 3.4915011253324137 2.4845443331043175 1.523482165912663 0.9214289516758772 -0.36549166713338166 -0.5595811349032433 3.453498082693807 5.586767470877245 0.04579269147991985 -0.2361646464286073 -0.25888165916984696 -0.7201422956187684 -0.9028949131507417 1.1610632764300697 -0.08305335572211758 -0.8624507640252036 -1.0348184921209005 -1.39845629070102 -0.42452014972859564 1.0174983823495205 0.8373592978523566 -1.675141264729506 -5.004588540501763 2.8307919738361376 3.144019318162371 -0.2062506873425676 -1.5504133561566027 -1.4527771811163117 -0.24056508519392716 0.9138473100208663 -0.7789155378601456 -4.64276499004583 -0.35622520271935654 2.3162840793748694 3.2249129658358133 4.059503897932801 2.780813952525336 -6.252890023949428 -1.8177084309279448 -0.5868054743623323 0.837655184016546 2.7638167395479902 0.7470213891517185 -1.4538882417102599 0.4006350611372167 -0.5269049257686244 -1.0627091216981486 
